<?xml version="1.0"?>
<opencv_storage>
<cascade>
  <stageType>BOOST</stageType>
  <featureType>HAAR</featureType>
  <height>40</height>
  <width>80</width>
  <stageParams>
    <boostType>GAB</boostType>
    <minHitRate>9.9900001287460327e-01</minHitRate>
    <maxFalseAlarm>5.0000000000000000e-01</maxFalseAlarm>
    <weightTrimRate>9.4999999999999996e-01</weightTrimRate>
    <maxDepth>1</maxDepth>
    <maxWeakCount>100</maxWeakCount></stageParams>
  <featureParams>
    <maxCatCount>0</maxCatCount>
    <featSize>1</featSize>
    <mode>ALL</mode></featureParams>
  <stageNum>5</stageNum>
  <stages>
    <!-- stage 0 -->
    <_>
      <maxWeakCount>4</maxWeakCount>
      <stageThreshold>-1.5331200361251831e+00</stageThreshold>
      <weakClassifiers>
        <_>
          <internalNodes>
            0 -1 6 -2.1465545520186424e-02</internalNodes>
          <leafValues>
            8.4482759237289429e-01 -8.6690646409988403e-01</leafValues></_>
        <_>
          <internalNodes>
            0 -1 40 -3.0912738293409348e-03</internalNodes>
          <leafValues>
            6.4562982320785522e-01 -6.4852172136306763e-01</leafValues></_>
        <_>
          <internalNodes>
            0 -1 10 -1.3967519626021385e-02</internalNodes>
          <leafValues>
            5.3860348463058472e-01 -7.6330024003982544e-01</leafValues></_>
        <_>
          <internalNodes>
            0 -1 18 1.4395186677575111e-02</internalNodes>
          <leafValues>
            -5.2675634622573853e-01 7.4560844898223877e-01</leafValues></_></weakClassifiers></_>
    <!-- stage 1 -->
    <_>
      <maxWeakCount>7</maxWeakCount>
      <stageThreshold>-1.7171384096145630e+00</stageThreshold>
      <weakClassifiers>
        <_>
          <internalNodes>
            0 -1 3 -3.9367713034152985e-02</internalNodes>
          <leafValues>
            7.2151899337768555e-01 -8.0566799640655518e-01</leafValues></_>
        <_>
          <internalNodes>
            0 -1 21 -5.5428859777748585e-03</internalNodes>
          <leafValues>
            7.3168343305587769e-01 -5.2291077375411987e-01</leafValues></_>
        <_>
          <internalNodes>
            0 -1 15 -1.4260685071349144e-02</internalNodes>
          <leafValues>
            8.4013873338699341e-01 -3.8554289937019348e-01</leafValues></_>
        <_>
          <internalNodes>
            0 -1 32 -1.1673637200146914e-03</internalNodes>
          <leafValues>
            6.5348738431930542e-01 -5.7639414072036743e-01</leafValues></_>
        <_>
          <internalNodes>
            0 -1 26 -3.3803302794694901e-03</internalNodes>
          <leafValues>
            4.3152716755867004e-01 -8.1154990196228027e-01</leafValues></_>
        <_>
          <internalNodes>
            0 -1 1 3.5184107720851898e-02</internalNodes>
          <leafValues>
            -3.4762483835220337e-01 8.4454274177551270e-01</leafValues></_>
        <_>
          <internalNodes>
            0 -1 27 -8.0411334056407213e-04</internalNodes>
          <leafValues>
            4.8947501182556152e-01 -5.1969790458679199e-01</leafValues></_></weakClassifiers></_>
    <!-- stage 2 -->
    <_>
      <maxWeakCount>10</maxWeakCount>
      <stageThreshold>-1.6460287570953369e+00</stageThreshold>
      <weakClassifiers>
        <_>
          <internalNodes>
            0 -1 5 -1.4463674277067184e-02</internalNodes>
          <leafValues>
            6.9730734825134277e-01 -6.7112809419631958e-01</leafValues></_>
        <_>
          <internalNodes>
            0 -1 30 -2.6725730858743191e-03</internalNodes>
          <leafValues>
            5.9271651506423950e-01 -4.3840122222900391e-01</leafValues></_>
        <_>
          <internalNodes>
            0 -1 29 -1.0561661329120398e-03</internalNodes>
          <leafValues>
            4.2954084277153015e-01 -5.4334592819213867e-01</leafValues></_>
        <_>
          <internalNodes>
            0 -1 11 -3.3149735536426306e-03</internalNodes>
          <leafValues>
            3.5432663559913635e-01 -6.6420024633407593e-01</leafValues></_>
        <_>
          <internalNodes>
            0 -1 19 -1.9861819222569466e-02</internalNodes>
          <leafValues>
            4.9499163031578064e-01 -5.0836503505706787e-01</leafValues></_>
        <_>
          <internalNodes>
            0 -1 2 5.3849332034587860e-02</internalNodes>
          <leafValues>
            -3.1529259681701660e-01 7.3992455005645752e-01</leafValues></_>
        <_>
          <internalNodes>
            0 -1 13 -1.2710541486740112e-01</internalNodes>
          <leafValues>
            7.4384427070617676e-01 -2.9003977775573730e-01</leafValues></_>
        <_>
          <internalNodes>
            0 -1 25 -2.7215410955250263e-04</internalNodes>
          <leafValues>
            7.2032147645950317e-01 -3.4802544116973877e-01</leafValues></_>
        <_>
          <internalNodes>
            0 -1 14 -8.6329010082408786e-04</internalNodes>
          <leafValues>
            8.4293889999389648e-01 -1.8764056265354156e-01</leafValues></_>
        <_>
          <internalNodes>
            0 -1 38 -3.7859845906496048e-03</internalNodes>
          <leafValues>
            3.1363925337791443e-01 -6.7135119438171387e-01</leafValues></_></weakClassifiers></_>
    <!-- stage 3 -->
    <_>
      <maxWeakCount>10</maxWeakCount>
      <stageThreshold>-1.1467173099517822e+00</stageThreshold>
      <weakClassifiers>
        <_>
          <internalNodes>
            0 -1 9 -7.4912747368216515e-03</internalNodes>
          <leafValues>
            5.5555558204650879e-01 -6.0570073127746582e-01</leafValues></_>
        <_>
          <internalNodes>
            0 -1 31 -3.9258524775505066e-03</internalNodes>
          <leafValues>
            3.6948552727699280e-01 -7.1365714073181152e-01</leafValues></_>
        <_>
          <internalNodes>
            0 -1 23 -1.3148027937859297e-03</internalNodes>
          <leafValues>
            4.7790211439132690e-01 -4.7662168741226196e-01</leafValues></_>
        <_>
          <internalNodes>
            0 -1 12 -1.2258788943290710e-01</internalNodes>
          <leafValues>
            6.6912710666656494e-01 -3.4387505054473877e-01</leafValues></_>
        <_>
          <internalNodes>
            0 -1 7 1.9922452047467232e-03</internalNodes>
          <leafValues>
            2.7081584930419922e-01 -7.0817118883132935e-01</leafValues></_>
        <_>
          <internalNodes>
            0 -1 36 4.3501676991581917e-03</internalNodes>
          <leafValues>
            -3.8907918334007263e-01 5.4110181331634521e-01</leafValues></_>
        <_>
          <internalNodes>
            0 -1 8 -1.2956110760569572e-02</internalNodes>
          <leafValues>
            3.2164749503135681e-01 -6.4068603515625000e-01</leafValues></_>
        <_>
          <internalNodes>
            0 -1 0 9.8821893334388733e-03</internalNodes>
          <leafValues>
            -3.6732023954391479e-01 6.1846119165420532e-01</leafValues></_>
        <_>
          <internalNodes>
            0 -1 34 1.7896614968776703e-02</internalNodes>
          <leafValues>
            -5.0722193717956543e-01 3.7790310382843018e-01</leafValues></_>
        <_>
          <internalNodes>
            0 -1 20 -1.3652128167450428e-02</internalNodes>
          <leafValues>
            6.7851388454437256e-01 -3.3635199069976807e-01</leafValues></_></weakClassifiers></_>
    <!-- stage 4 -->
    <_>
      <maxWeakCount>11</maxWeakCount>
      <stageThreshold>-1.1510159969329834e+00</stageThreshold>
      <weakClassifiers>
        <_>
          <internalNodes>
            0 -1 4 -6.3276410102844238e-02</internalNodes>
          <leafValues>
            5.4872697591781616e-01 -4.8806941509246826e-01</leafValues></_>
        <_>
          <internalNodes>
            0 -1 21 -6.1265807598829269e-03</internalNodes>
          <leafValues>
            5.6686782836914062e-01 -4.3830412626266479e-01</leafValues></_>
        <_>
          <internalNodes>
            0 -1 37 8.3139038179069757e-04</internalNodes>
          <leafValues>
            -4.3841844797134399e-01 4.7472336888313293e-01</leafValues></_>
        <_>
          <internalNodes>
            0 -1 24 -1.0132580791832879e-04</internalNodes>
          <leafValues>
            -9.1609746217727661e-01 2.1348588168621063e-01</leafValues></_>
        <_>
          <internalNodes>
            0 -1 17 -9.6890879794955254e-03</internalNodes>
          <leafValues>
            5.3890591859817505e-01 -3.7351340055465698e-01</leafValues></_>
        <_>
          <internalNodes>
            0 -1 35 -3.0624018982052803e-03</internalNodes>
          <leafValues>
            3.9636161923408508e-01 -4.9857532978057861e-01</leafValues></_>
        <_>
          <internalNodes>
            0 -1 28 -2.8948707040399313e-04</internalNodes>
          <leafValues>
            3.9493963122367859e-01 -4.8709625005722046e-01</leafValues></_>
        <_>
          <internalNodes>
            0 -1 16 -5.1891896873712540e-03</internalNodes>
          <leafValues>
            6.7332869768142700e-01 -2.9656437039375305e-01</leafValues></_>
        <_>
          <internalNodes>
            0 -1 33 -7.2013266617432237e-04</internalNodes>
          <leafValues>
            7.7493423223495483e-01 -1.6757971048355103e-01</leafValues></_>
        <_>
          <internalNodes>
            0 -1 39 -1.2185364030301571e-03</internalNodes>
          <leafValues>
            2.4283339083194733e-01 -7.0998060703277588e-01</leafValues></_>
        <_>
          <internalNodes>
            0 -1 22 -6.3466373831033707e-03</internalNodes>
          <leafValues>
            6.9874989986419678e-01 -2.5702896714210510e-01</leafValues></_></weakClassifiers></_></stages>
  <features>
    <_>
      <rects>
        <_>
          4 14 24 5 -1.</_>
        <_>
          16 14 12 5 2.</_></rects>
      <tilted>0</tilted></_>
    <_>
      <rects>
        <_>
          8 13 28 17 -1.</_>
        <_>
          15 13 14 17 2.</_></rects>
      <tilted>0</tilted></_>
    <_>
      <rects>
        <_>
          10 12 27 26 -1.</_>
        <_>
          19 12 9 26 3.</_></rects>
      <tilted>0</tilted></_>
    <_>
      <rects>
        <_>
          16 14 48 20 -1.</_>
        <_>
          28 14 24 20 2.</_></rects>
      <tilted>0</tilted></_>
    <_>
      <rects>
        <_>
          18 10 48 25 -1.</_>
        <_>
          30 10 24 25 2.</_></rects>
      <tilted>0</tilted></_>
    <_>
      <rects>
        <_>
          18 18 16 16 -1.</_>
        <_>
          26 18 8 16 2.</_></rects>
      <tilted>0</tilted></_>
    <_>
      <rects>
        <_>
          18 22 44 13 -1.</_>
        <_>
          29 22 22 13 2.</_></rects>
      <tilted>0</tilted></_>
    <_>
      <rects>
        <_>
          20 7 27 21 -1.</_>
        <_>
          29 7 9 21 3.</_></rects>
      <tilted>0</tilted></_>
    <_>
      <rects>
        <_>
          20 7 32 33 -1.</_>
        <_>
          36 7 16 33 2.</_></rects>
      <tilted>0</tilted></_>
    <_>
      <rects>
        <_>
          20 20 24 13 -1.</_>
        <_>
          28 20 8 13 3.</_></rects>
      <tilted>0</tilted></_>
    <_>
      <rects>
        <_>
          21 10 16 29 -1.</_>
        <_>
          29 10 8 29 2.</_></rects>
      <tilted>0</tilted></_>
    <_>
      <rects>
        <_>
          23 15 18 15 -1.</_>
        <_>
          29 15 6 15 3.</_></rects>
      <tilted>0</tilted></_>
    <_>
      <rects>
        <_>
          24 20 36 15 -1.</_>
        <_>
          36 25 12 5 9.</_></rects>
      <tilted>0</tilted></_>
    <_>
      <rects>
        <_>
          26 19 33 18 -1.</_>
        <_>
          37 25 11 6 9.</_></rects>
      <tilted>0</tilted></_>
    <_>
      <rects>
        <_>
          27 19 3 3 -1.</_>
        <_>
          28 20 1 1 9.</_></rects>
      <tilted>0</tilted></_>
    <_>
      <rects>
        <_>
          29 17 12 8 -1.</_>
        <_>
          29 17 12 4 2.</_></rects>
      <tilted>1</tilted></_>
    <_>
      <rects>
        <_>
          30 0 4 18 -1.</_>
        <_>
          30 0 2 18 2.</_></rects>
      <tilted>1</tilted></_>
    <_>
      <rects>
        <_>
          30 21 10 6 -1.</_>
        <_>
          30 21 10 3 2.</_></rects>
      <tilted>1</tilted></_>
    <_>
      <rects>
        <_>
          32 17 18 9 -1.</_>
        <_>
          38 20 6 3 9.</_></rects>
      <tilted>0</tilted></_>
    <_>
      <rects>
        <_>
          35 11 28 22 -1.</_>
        <_>
          42 11 14 22 2.</_></rects>
      <tilted>0</tilted></_>
    <_>
      <rects>
        <_>
          35 12 9 12 -1.</_>
        <_>
          32 15 9 6 2.</_></rects>
      <tilted>1</tilted></_>
    <_>
      <rects>
        <_>
          36 20 9 8 -1.</_>
        <_>
          36 24 9 4 2.</_></rects>
      <tilted>0</tilted></_>
    <_>
      <rects>
        <_>
          37 2 13 9 -1.</_>
        <_>
          37 5 13 3 3.</_></rects>
      <tilted>0</tilted></_>
    <_>
      <rects>
        <_>
          38 14 4 6 -1.</_>
        <_>
          38 17 4 3 2.</_></rects>
      <tilted>0</tilted></_>
    <_>
      <rects>
        <_>
          39 16 8 3 -1.</_>
        <_>
          39 16 4 3 2.</_></rects>
      <tilted>1</tilted></_>
    <_>
      <rects>
        <_>
          39 17 2 2 -1.</_>
        <_>
          39 18 2 1 2.</_></rects>
      <tilted>0</tilted></_>
    <_>
      <rects>
        <_>
          39 18 18 19 -1.</_>
        <_>
          45 18 6 19 3.</_></rects>
      <tilted>0</tilted></_>
    <_>
      <rects>
        <_>
          39 19 1 16 -1.</_>
        <_>
          39 23 1 8 2.</_></rects>
      <tilted>0</tilted></_>
    <_>
      <rects>
        <_>
          39 19 6 3 -1.</_>
        <_>
          41 20 2 1 9.</_></rects>
      <tilted>0</tilted></_>
    <_>
      <rects>
        <_>
          39 20 2 12 -1.</_>
        <_>
          39 23 2 6 2.</_></rects>
      <tilted>0</tilted></_>
    <_>
      <rects>
        <_>
          39 20 18 2 -1.</_>
        <_>
          45 20 6 2 3.</_></rects>
      <tilted>0</tilted></_>
    <_>
      <rects>
        <_>
          39 20 18 9 -1.</_>
        <_>
          45 20 6 9 3.</_></rects>
      <tilted>0</tilted></_>
    <_>
      <rects>
        <_>
          40 14 3 6 -1.</_>
        <_>
          40 17 3 3 2.</_></rects>
      <tilted>0</tilted></_>
    <_>
      <rects>
        <_>
          41 8 12 2 -1.</_>
        <_>
          41 8 6 1 2.</_>
        <_>
          47 9 6 1 2.</_></rects>
      <tilted>0</tilted></_>
    <_>
      <rects>
        <_>
          42 5 20 34 -1.</_>
        <_>
          52 5 10 34 2.</_></rects>
      <tilted>0</tilted></_>
    <_>
      <rects>
        <_>
          43 13 12 13 -1.</_>
        <_>
          46 13 6 13 2.</_></rects>
      <tilted>0</tilted></_>
    <_>
      <rects>
        <_>
          44 15 2 12 -1.</_>
        <_>
          40 19 2 4 3.</_></rects>
      <tilted>1</tilted></_>
    <_>
      <rects>
        <_>
          45 13 2 6 -1.</_>
        <_>
          45 13 2 3 2.</_></rects>
      <tilted>1</tilted></_>
    <_>
      <rects>
        <_>
          47 14 9 16 -1.</_>
        <_>
          50 17 3 16 3.</_></rects>
      <tilted>1</tilted></_>
    <_>
      <rects>
        <_>
          47 16 8 16 -1.</_>
        <_>
          49 18 4 16 2.</_></rects>
      <tilted>1</tilted></_>
    <_>
      <rects>
        <_>
          48 15 8 13 -1.</_>
        <_>
          50 17 4 13 2.</_></rects>
      <tilted>1</tilted></_></features></cascade>
</opencv_storage>
