<?xml version="1.0"?>
<opencv_storage>
<stage1>
  <maxWeakCount>7</maxWeakCount>
  <stageThreshold>-1.7171384096145630e+00</stageThreshold>
  <weakClassifiers>
    <_>
      <internalNodes>
        0 -1 2565042 -3.9367713034152985e-02</internalNodes>
      <leafValues>
        7.2151899337768555e-01 -8.0566799640655518e-01</leafValues></_>
    <_>
      <internalNodes>
        0 -1 5153007 -5.5428859777748585e-03</internalNodes>
      <leafValues>
        7.3168343305587769e-01 -5.2291077375411987e-01</leafValues></_>
    <_>
      <internalNodes>
        0 -1 4330762 -1.4260685071349144e-02</internalNodes>
      <leafValues>
        8.4013873338699341e-01 -3.8554289937019348e-01</leafValues></_>
    <_>
      <internalNodes>
        0 -1 5555745 -1.1673637200146914e-03</internalNodes>
      <leafValues>
        6.5348738431930542e-01 -5.7639414072036743e-01</leafValues></_>
    <_>
      <internalNodes>
        0 -1 5465742 -3.3803302794694901e-03</internalNodes>
      <leafValues>
        4.3152716755867004e-01 -8.1154990196228027e-01</leafValues></_>
    <_>
      <internalNodes>
        0 -1 1353897 3.5184107720851898e-02</internalNodes>
      <leafValues>
        -3.4762483835220337e-01 8.4454274177551270e-01</leafValues></_>
    <_>
      <internalNodes>
        0 -1 5467494 -8.0411334056407213e-04</internalNodes>
      <leafValues>
        4.8947501182556152e-01 -5.1969790458679199e-01</leafValues></_></weakClassifiers></stage1>
</opencv_storage>
