<?xml version="1.0"?>
<opencv_storage>
<stage3>
  <maxWeakCount>10</maxWeakCount>
  <stageThreshold>-1.1467173099517822e+00</stageThreshold>
  <weakClassifiers>
    <_>
      <internalNodes>
        0 -1 3158538 -7.4912747368216515e-03</internalNodes>
      <leafValues>
        5.5555558204650879e-01 -6.0570073127746582e-01</leafValues></_>
    <_>
      <internalNodes>
        0 -1 5470779 -3.9258524775505066e-03</internalNodes>
      <leafValues>
        3.6948552727699280e-01 -7.1365714073181152e-01</leafValues></_>
    <_>
      <internalNodes>
        0 -1 5348970 -1.3148027937859297e-03</internalNodes>
      <leafValues>
        4.7790211439132690e-01 -4.7662168741226196e-01</leafValues></_>
    <_>
      <internalNodes>
        0 -1 3701757 -1.2258788943290710e-01</internalNodes>
      <leafValues>
        6.6912710666656494e-01 -3.4387505054473877e-01</leafValues></_>
    <_>
      <internalNodes>
        0 -1 3098434 1.9922452047467232e-03</internalNodes>
      <leafValues>
        2.7081584930419922e-01 -7.0817118883132935e-01</leafValues></_>
    <_>
      <internalNodes>
        0 -1 5948309 4.3501676991581917e-03</internalNodes>
      <leafValues>
        -3.8907918334007263e-01 5.4110181331634521e-01</leafValues></_>
    <_>
      <internalNodes>
        0 -1 3099755 -1.2956110760569572e-02</internalNodes>
      <leafValues>
        3.2164749503135681e-01 -6.4068603515625000e-01</leafValues></_>
    <_>
      <internalNodes>
        0 -1 732205 9.8821893334388733e-03</internalNodes>
      <leafValues>
        -3.6732023954391479e-01 6.1846119165420532e-01</leafValues></_>
    <_>
      <internalNodes>
        0 -1 5721983 1.7896614968776703e-02</internalNodes>
      <leafValues>
        -5.0722193717956543e-01 3.7790310382843018e-01</leafValues></_>
    <_>
      <internalNodes>
        0 -1 5016773 -1.3652128167450428e-02</internalNodes>
      <leafValues>
        6.7851388454437256e-01 -3.3635199069976807e-01</leafValues></_></weakClassifiers></stage3>
</opencv_storage>
