<?xml version="1.0"?>
<opencv_storage>
<cascade>
  <stageType>BOOST</stageType>
  <featureType>HAAR</featureType>
  <height>40</height>
  <width>80</width>
  <stageParams>
    <boostType>GAB</boostType>
    <minHitRate>9.9900001287460327e-01</minHitRate>
    <maxFalseAlarm>5.0000000000000000e-01</maxFalseAlarm>
    <weightTrimRate>9.4999999999999996e-01</weightTrimRate>
    <maxDepth>1</maxDepth>
    <maxWeakCount>100</maxWeakCount></stageParams>
  <featureParams>
    <maxCatCount>0</maxCatCount>
    <featSize>1</featSize>
    <mode>ALL</mode></featureParams>
  <stageNum>5</stageNum>
  <stages>
    <!-- stage 0 -->
    <_>
      <maxWeakCount>4</maxWeakCount>
      <stageThreshold>-1.3617283105850220e+00</stageThreshold>
      <weakClassifiers>
        <_>
          <internalNodes>
            0 -1 6 -1.0227988474071026e-02</internalNodes>
          <leafValues>
            9.4322633743286133e-01 -8.4959352016448975e-01</leafValues></_>
        <_>
          <internalNodes>
            0 -1 5 -4.9802817404270172e-02</internalNodes>
          <leafValues>
            8.4439486265182495e-01 -5.1182276010513306e-01</leafValues></_>
        <_>
          <internalNodes>
            0 -1 23 -1.5172075945883989e-03</internalNodes>
          <leafValues>
            7.5565820932388306e-01 -5.9143322706222534e-01</leafValues></_>
        <_>
          <internalNodes>
            0 -1 28 -2.2063297219574451e-03</internalNodes>
          <leafValues>
            5.9112119674682617e-01 -6.4033311605453491e-01</leafValues></_></weakClassifiers></_>
    <!-- stage 1 -->
    <_>
      <maxWeakCount>7</maxWeakCount>
      <stageThreshold>-1.3439543247222900e+00</stageThreshold>
      <weakClassifiers>
        <_>
          <internalNodes>
            0 -1 4 -3.8654968142509460e-02</internalNodes>
          <leafValues>
            9.3162393569946289e-01 -5.0439369678497314e-01</leafValues></_>
        <_>
          <internalNodes>
            0 -1 25 -3.4411298111081123e-03</internalNodes>
          <leafValues>
            7.5629574060440063e-01 -4.5781105756759644e-01</leafValues></_>
        <_>
          <internalNodes>
            0 -1 30 -9.9872541613876820e-04</internalNodes>
          <leafValues>
            6.5971928834915161e-01 -5.2133798599243164e-01</leafValues></_>
        <_>
          <internalNodes>
            0 -1 21 -2.0082476548850536e-03</internalNodes>
          <leafValues>
            7.2713696956634521e-01 -4.9040099978446960e-01</leafValues></_>
        <_>
          <internalNodes>
            0 -1 10 -1.7089611291885376e-01</internalNodes>
          <leafValues>
            7.7945375442504883e-01 -3.7671875953674316e-01</leafValues></_>
        <_>
          <internalNodes>
            0 -1 12 -3.9784158580005169e-03</internalNodes>
          <leafValues>
            5.5940222740173340e-01 -5.8771193027496338e-01</leafValues></_>
        <_>
          <internalNodes>
            0 -1 34 -4.8678047023713589e-03</internalNodes>
          <leafValues>
            3.7688210606575012e-01 -5.3150016069412231e-01</leafValues></_></weakClassifiers></_>
    <!-- stage 2 -->
    <_>
      <maxWeakCount>8</maxWeakCount>
      <stageThreshold>-1.3257737159729004e+00</stageThreshold>
      <weakClassifiers>
        <_>
          <internalNodes>
            0 -1 3 -3.4331250935792923e-02</internalNodes>
          <leafValues>
            7.7092915773391724e-01 -6.4788734912872314e-01</leafValues></_>
        <_>
          <internalNodes>
            0 -1 27 -8.5112167289480567e-04</internalNodes>
          <leafValues>
            5.8197534084320068e-01 -5.2816534042358398e-01</leafValues></_>
        <_>
          <internalNodes>
            0 -1 22 -1.4204346807673573e-03</internalNodes>
          <leafValues>
            7.2021466493606567e-01 -4.4588318467140198e-01</leafValues></_>
        <_>
          <internalNodes>
            0 -1 11 -1.0529551655054092e-02</internalNodes>
          <leafValues>
            6.3726723194122314e-01 -4.3132516741752625e-01</leafValues></_>
        <_>
          <internalNodes>
            0 -1 24 -3.2325801439583302e-03</internalNodes>
          <leafValues>
            6.3631349802017212e-01 -4.3787643313407898e-01</leafValues></_>
        <_>
          <internalNodes>
            0 -1 33 1.7418749630451202e-02</internalNodes>
          <leafValues>
            -4.0912720561027527e-01 6.2467676401138306e-01</leafValues></_>
        <_>
          <internalNodes>
            0 -1 2 1.0864334180951118e-02</internalNodes>
          <leafValues>
            -3.4935554862022400e-01 6.6491633653640747e-01</leafValues></_>
        <_>
          <internalNodes>
            0 -1 10 -1.9185233116149902e-01</internalNodes>
          <leafValues>
            7.7012717723846436e-01 -2.6048406958580017e-01</leafValues></_></weakClassifiers></_>
    <!-- stage 3 -->
    <_>
      <maxWeakCount>10</maxWeakCount>
      <stageThreshold>-1.0759419202804565e+00</stageThreshold>
      <weakClassifiers>
        <_>
          <internalNodes>
            0 -1 9 -1.1511036194860935e-02</internalNodes>
          <leafValues>
            7.5188678503036499e-01 -4.0416666865348816e-01</leafValues></_>
        <_>
          <internalNodes>
            0 -1 18 3.0821962282061577e-03</internalNodes>
          <leafValues>
            -4.3432420492172241e-01 6.1435228586196899e-01</leafValues></_>
        <_>
          <internalNodes>
            0 -1 0 -4.5923423767089844e-01</internalNodes>
          <leafValues>
            8.3519965410232544e-01 -3.0450415611267090e-01</leafValues></_>
        <_>
          <internalNodes>
            0 -1 26 -4.3562822975218296e-04</internalNodes>
          <leafValues>
            7.2026097774505615e-01 -3.6954963207244873e-01</leafValues></_>
        <_>
          <internalNodes>
            0 -1 31 -1.3208993477746844e-03</internalNodes>
          <leafValues>
            3.9185050129890442e-01 -7.1649819612503052e-01</leafValues></_>
        <_>
          <internalNodes>
            0 -1 17 -9.8158437758684158e-03</internalNodes>
          <leafValues>
            7.0386070013046265e-01 -3.5961318016052246e-01</leafValues></_>
        <_>
          <internalNodes>
            0 -1 36 1.7240479588508606e-02</internalNodes>
          <leafValues>
            -2.4206367135047913e-01 8.4176903963088989e-01</leafValues></_>
        <_>
          <internalNodes>
            0 -1 1 2.8201200067996979e-02</internalNodes>
          <leafValues>
            -2.6523172855377197e-01 6.6941523551940918e-01</leafValues></_>
        <_>
          <internalNodes>
            0 -1 14 -1.8890939652919769e-02</internalNodes>
          <leafValues>
            3.1134060025215149e-01 -6.3918638229370117e-01</leafValues></_>
        <_>
          <internalNodes>
            0 -1 15 6.9720565807074308e-04</internalNodes>
          <leafValues>
            -4.1927331686019897e-01 5.0217062234878540e-01</leafValues></_></weakClassifiers></_>
    <!-- stage 4 -->
    <_>
      <maxWeakCount>9</maxWeakCount>
      <stageThreshold>-8.9257782697677612e-01</stageThreshold>
      <weakClassifiers>
        <_>
          <internalNodes>
            0 -1 8 -1.8349532037973404e-03</internalNodes>
          <leafValues>
            6.9109261035919189e-01 -5.4517132043838501e-01</leafValues></_>
        <_>
          <internalNodes>
            0 -1 29 6.3767097890377045e-03</internalNodes>
          <leafValues>
            -7.8368908166885376e-01 4.1156309843063354e-01</leafValues></_>
        <_>
          <internalNodes>
            0 -1 19 4.6283965930342674e-03</internalNodes>
          <leafValues>
            -4.0093731880187988e-01 6.5753793716430664e-01</leafValues></_>
        <_>
          <internalNodes>
            0 -1 13 -1.7480883747339249e-02</internalNodes>
          <leafValues>
            6.7578125000000000e-01 -4.5807141065597534e-01</leafValues></_>
        <_>
          <internalNodes>
            0 -1 35 -9.7808139398694038e-03</internalNodes>
          <leafValues>
            8.8785117864608765e-01 -2.6685181260108948e-01</leafValues></_>
        <_>
          <internalNodes>
            0 -1 32 1.3477388769388199e-02</internalNodes>
          <leafValues>
            -6.6162407398223877e-01 3.3722466230392456e-01</leafValues></_>
        <_>
          <internalNodes>
            0 -1 20 -2.8077245224267244e-03</internalNodes>
          <leafValues>
            3.7412074208259583e-01 -4.6337950229644775e-01</leafValues></_>
        <_>
          <internalNodes>
            0 -1 7 -1.7815884202718735e-02</internalNodes>
          <leafValues>
            7.2152066230773926e-01 -2.9444724321365356e-01</leafValues></_>
        <_>
          <internalNodes>
            0 -1 16 -8.3172565791755915e-04</internalNodes>
          <leafValues>
            7.8749305009841919e-01 -1.9660551846027374e-01</leafValues></_></weakClassifiers></_></stages>
  <features>
    <_>
      <rects>
        <_>
          6 13 69 24 -1.</_>
        <_>
          29 21 23 8 9.</_></rects>
      <tilted>0</tilted></_>
    <_>
      <rects>
        <_>
          10 9 24 23 -1.</_>
        <_>
          16 9 12 23 2.</_></rects>
      <tilted>0</tilted></_>
    <_>
      <rects>
        <_>
          11 11 24 10 -1.</_>
        <_>
          17 11 12 10 2.</_></rects>
      <tilted>0</tilted></_>
    <_>
      <rects>
        <_>
          16 23 51 12 -1.</_>
        <_>
          33 23 17 12 3.</_></rects>
      <tilted>0</tilted></_>
    <_>
      <rects>
        <_>
          17 13 48 21 -1.</_>
        <_>
          29 13 24 21 2.</_></rects>
      <tilted>0</tilted></_>
    <_>
      <rects>
        <_>
          18 9 48 25 -1.</_>
        <_>
          30 9 24 25 2.</_></rects>
      <tilted>0</tilted></_>
    <_>
      <rects>
        <_>
          18 22 44 11 -1.</_>
        <_>
          29 22 22 11 2.</_></rects>
      <tilted>0</tilted></_>
    <_>
      <rects>
        <_>
          18 23 44 2 -1.</_>
        <_>
          29 23 22 2 2.</_></rects>
      <tilted>0</tilted></_>
    <_>
      <rects>
        <_>
          19 16 30 19 -1.</_>
        <_>
          29 16 10 19 3.</_></rects>
      <tilted>0</tilted></_>
    <_>
      <rects>
        <_>
          21 4 14 34 -1.</_>
        <_>
          28 4 7 34 2.</_></rects>
      <tilted>0</tilted></_>
    <_>
      <rects>
        <_>
          21 18 42 18 -1.</_>
        <_>
          35 24 14 6 9.</_></rects>
      <tilted>0</tilted></_>
    <_>
      <rects>
        <_>
          21 21 12 11 -1.</_>
        <_>
          27 21 6 11 2.</_></rects>
      <tilted>0</tilted></_>
    <_>
      <rects>
        <_>
          23 20 18 12 -1.</_>
        <_>
          29 20 6 12 3.</_></rects>
      <tilted>0</tilted></_>
    <_>
      <rects>
        <_>
          29 17 15 8 -1.</_>
        <_>
          29 17 15 4 2.</_></rects>
      <tilted>1</tilted></_>
    <_>
      <rects>
        <_>
          30 10 33 24 -1.</_>
        <_>
          41 10 11 24 3.</_></rects>
      <tilted>0</tilted></_>
    <_>
      <rects>
        <_>
          31 21 10 2 -1.</_>
        <_>
          36 21 5 2 2.</_></rects>
      <tilted>0</tilted></_>
    <_>
      <rects>
        <_>
          32 18 3 5 -1.</_>
        <_>
          33 18 1 5 3.</_></rects>
      <tilted>0</tilted></_>
    <_>
      <rects>
        <_>
          34 17 8 9 -1.</_>
        <_>
          31 20 8 3 3.</_></rects>
      <tilted>1</tilted></_>
    <_>
      <rects>
        <_>
          37 16 8 12 -1.</_>
        <_>
          37 20 8 4 3.</_></rects>
      <tilted>0</tilted></_>
    <_>
      <rects>
        <_>
          37 17 8 12 -1.</_>
        <_>
          37 20 8 6 2.</_></rects>
      <tilted>0</tilted></_>
    <_>
      <rects>
        <_>
          37 21 8 6 -1.</_>
        <_>
          37 24 8 3 2.</_></rects>
      <tilted>0</tilted></_>
    <_>
      <rects>
        <_>
          38 14 5 6 -1.</_>
        <_>
          38 17 5 3 2.</_></rects>
      <tilted>0</tilted></_>
    <_>
      <rects>
        <_>
          38 17 5 6 -1.</_>
        <_>
          38 19 5 2 3.</_></rects>
      <tilted>0</tilted></_>
    <_>
      <rects>
        <_>
          38 20 3 16 -1.</_>
        <_>
          38 24 3 8 2.</_></rects>
      <tilted>0</tilted></_>
    <_>
      <rects>
        <_>
          38 20 14 3 -1.</_>
        <_>
          45 20 7 3 2.</_></rects>
      <tilted>0</tilted></_>
    <_>
      <rects>
        <_>
          38 20 21 6 -1.</_>
        <_>
          45 20 7 6 3.</_></rects>
      <tilted>0</tilted></_>
    <_>
      <rects>
        <_>
          39 17 3 2 -1.</_>
        <_>
          39 18 3 1 2.</_></rects>
      <tilted>0</tilted></_>
    <_>
      <rects>
        <_>
          39 20 2 12 -1.</_>
        <_>
          39 23 2 6 2.</_></rects>
      <tilted>0</tilted></_>
    <_>
      <rects>
        <_>
          39 20 18 3 -1.</_>
        <_>
          45 20 6 3 3.</_></rects>
      <tilted>0</tilted></_>
    <_>
      <rects>
        <_>
          41 12 10 8 -1.</_>
        <_>
          41 12 5 8 2.</_></rects>
      <tilted>1</tilted></_>
    <_>
      <rects>
        <_>
          41 20 1 12 -1.</_>
        <_>
          38 23 1 6 2.</_></rects>
      <tilted>1</tilted></_>
    <_>
      <rects>
        <_>
          42 18 12 15 -1.</_>
        <_>
          45 18 6 15 2.</_></rects>
      <tilted>0</tilted></_>
    <_>
      <rects>
        <_>
          43 4 20 34 -1.</_>
        <_>
          53 4 10 34 2.</_></rects>
      <tilted>0</tilted></_>
    <_>
      <rects>
        <_>
          43 19 22 7 -1.</_>
        <_>
          54 19 11 7 2.</_></rects>
      <tilted>0</tilted></_>
    <_>
      <rects>
        <_>
          47 15 9 15 -1.</_>
        <_>
          50 18 3 15 3.</_></rects>
      <tilted>1</tilted></_>
    <_>
      <rects>
        <_>
          53 3 10 9 -1.</_>
        <_>
          50 6 10 3 3.</_></rects>
      <tilted>1</tilted></_>
    <_>
      <rects>
        <_>
          62 2 13 12 -1.</_>
        <_>
          58 6 13 4 3.</_></rects>
      <tilted>1</tilted></_></features></cascade>
</opencv_storage>
