<?xml version="1.0"?>
<opencv_storage>
<stage3>
  <maxWeakCount>10</maxWeakCount>
  <stageThreshold>-1.0759419202804565e+00</stageThreshold>
  <weakClassifiers>
    <_>
      <internalNodes>
        0 -1 3219270 -1.1511036194860935e-02</internalNodes>
      <leafValues>
        7.5188678503036499e-01 -4.0416666865348816e-01</leafValues></_>
    <_>
      <internalNodes>
        0 -1 5249584 3.0821962282061577e-03</internalNodes>
      <leafValues>
        -4.3432420492172241e-01 6.1435228586196899e-01</leafValues></_>
    <_>
      <internalNodes>
        0 -1 1043737 -4.5923423767089844e-01</internalNodes>
      <leafValues>
        8.3519965410232544e-01 -3.0450415611267090e-01</leafValues></_>
    <_>
      <internalNodes>
        0 -1 5462415 -4.3562822975218296e-04</internalNodes>
      <leafValues>
        7.2026097774505615e-01 -3.6954963207244873e-01</leafValues></_>
    <_>
      <internalNodes>
        0 -1 5765949 -1.3208993477746844e-03</internalNodes>
      <leafValues>
        3.9185050129890442e-01 -7.1649819612503052e-01</leafValues></_>
    <_>
      <internalNodes>
        0 -1 4921476 -9.8158437758684158e-03</internalNodes>
      <leafValues>
        7.0386070013046265e-01 -3.5961318016052246e-01</leafValues></_>
    <_>
      <internalNodes>
        0 -1 7250837 1.7240479588508606e-02</internalNodes>
      <leafValues>
        -2.4206367135047913e-01 8.4176903963088989e-01</leafValues></_>
    <_>
      <internalNodes>
        0 -1 1639623 2.8201200067996979e-02</internalNodes>
      <leafValues>
        -2.6523172855377197e-01 6.6941523551940918e-01</leafValues></_>
    <_>
      <internalNodes>
        0 -1 4425147 -1.8890939652919769e-02</internalNodes>
      <leafValues>
        3.1134060025215149e-01 -6.3918638229370117e-01</leafValues></_>
    <_>
      <internalNodes>
        0 -1 4583788 6.9720565807074308e-04</internalNodes>
      <leafValues>
        -4.1927331686019897e-01 5.0217062234878540e-01</leafValues></_></weakClassifiers></stage3>
</opencv_storage>
