<?xml version="1.0"?>
<opencv_storage>
<stage2>
  <maxWeakCount>8</maxWeakCount>
  <stageThreshold>-1.3257737159729004e+00</stageThreshold>
  <weakClassifiers>
    <_>
      <internalNodes>
        0 -1 2599869 -3.4331250935792923e-02</internalNodes>
      <leafValues>
        7.7092915773391724e-01 -6.4788734912872314e-01</leafValues></_>
    <_>
      <internalNodes>
        0 -1 5470159 -8.5112167289480567e-04</internalNodes>
      <leafValues>
        5.8197534084320068e-01 -5.2816534042358398e-01</leafValues></_>
    <_>
      <internalNodes>
        0 -1 5358654 -1.4204346807673573e-03</internalNodes>
      <leafValues>
        7.2021466493606567e-01 -4.4588318467140198e-01</leafValues></_>
    <_>
      <internalNodes>
        0 -1 3299350 -1.0529551655054092e-02</internalNodes>
      <leafValues>
        6.3726723194122314e-01 -4.3132516741752625e-01</leafValues></_>
    <_>
      <internalNodes>
        0 -1 5366982 -3.2325801439583302e-03</internalNodes>
      <leafValues>
        6.3631349802017212e-01 -4.3787643313407898e-01</leafValues></_>
    <_>
      <internalNodes>
        0 -1 5865263 1.7418749630451202e-02</internalNodes>
      <leafValues>
        -4.0912720561027527e-01 6.2467676401138306e-01</leafValues></_>
    <_>
      <internalNodes>
        0 -1 1803709 1.0864334180951118e-02</internalNodes>
      <leafValues>
        -3.4935554862022400e-01 6.6491633653640747e-01</leafValues></_>
    <_>
      <internalNodes>
        0 -1 3290122 -1.9185233116149902e-01</internalNodes>
      <leafValues>
        7.7012717723846436e-01 -2.6048406958580017e-01</leafValues></_></weakClassifiers></stage2>
</opencv_storage>
