<?xml version="1.0"?>
<opencv_storage>
<cascade>
  <stageType>BOOST</stageType>
  <featureType>HAAR</featureType>
  <height>40</height>
  <width>80</width>
  <stageParams>
    <boostType>GAB</boostType>
    <minHitRate>9.9000000953674316e-01</minHitRate>
    <maxFalseAlarm>5.0000000000000000e-01</maxFalseAlarm>
    <weightTrimRate>9.4999999999999996e-01</weightTrimRate>
    <maxDepth>1</maxDepth>
    <maxWeakCount>100</maxWeakCount></stageParams>
  <featureParams>
    <maxCatCount>0</maxCatCount>
    <featSize>1</featSize>
    <mode>ALL</mode></featureParams>
  <stageNum>10</stageNum>
  <stages>
    <!-- stage 0 -->
    <_>
      <maxWeakCount>2</maxWeakCount>
      <stageThreshold>-3.2839298248291016e-02</stageThreshold>
      <weakClassifiers>
        <_>
          <internalNodes>
            0 -1 11 -1.5280355699360371e-02</internalNodes>
          <leafValues>
            8.9407801628112793e-01 -8.7380498647689819e-01</leafValues></_>
        <_>
          <internalNodes>
            0 -1 6 -1.8432125449180603e-01</internalNodes>
          <leafValues>
            8.4096568822860718e-01 -4.6159961819648743e-01</leafValues></_></weakClassifiers></_>
    <!-- stage 1 -->
    <_>
      <maxWeakCount>4</maxWeakCount>
      <stageThreshold>-6.8790525197982788e-01</stageThreshold>
      <weakClassifiers>
        <_>
          <internalNodes>
            0 -1 45 -3.3230867702513933e-03</internalNodes>
          <leafValues>
            7.9087454080581665e-01 -5.3225809335708618e-01</leafValues></_>
        <_>
          <internalNodes>
            0 -1 20 -4.5225801877677441e-03</internalNodes>
          <leafValues>
            6.4379006624221802e-01 -6.0510820150375366e-01</leafValues></_>
        <_>
          <internalNodes>
            0 -1 3 -2.8383576869964600e-01</internalNodes>
          <leafValues>
            7.8047066926956177e-01 -3.7465214729309082e-01</leafValues></_>
        <_>
          <internalNodes>
            0 -1 40 1.6066496027633548e-03</internalNodes>
          <leafValues>
            -4.9901944398880005e-01 6.7493844032287598e-01</leafValues></_></weakClassifiers></_>
    <!-- stage 2 -->
    <_>
      <maxWeakCount>4</maxWeakCount>
      <stageThreshold>1.8712480366230011e-01</stageThreshold>
      <weakClassifiers>
        <_>
          <internalNodes>
            0 -1 15 -3.8633914664387703e-03</internalNodes>
          <leafValues>
            7.7397912740707397e-01 -4.6558704972267151e-01</leafValues></_>
        <_>
          <internalNodes>
            0 -1 9 -6.4124047756195068e-02</internalNodes>
          <leafValues>
            5.4356634616851807e-01 -5.8959710597991943e-01</leafValues></_>
        <_>
          <internalNodes>
            0 -1 32 4.2391568422317505e-03</internalNodes>
          <leafValues>
            -5.2844983339309692e-01 5.4672509431838989e-01</leafValues></_>
        <_>
          <internalNodes>
            0 -1 25 -1.3436013832688332e-02</internalNodes>
          <leafValues>
            7.3639172315597534e-01 -4.3757957220077515e-01</leafValues></_></weakClassifiers></_>
    <!-- stage 3 -->
    <_>
      <maxWeakCount>6</maxWeakCount>
      <stageThreshold>-7.2471213340759277e-01</stageThreshold>
      <weakClassifiers>
        <_>
          <internalNodes>
            0 -1 51 5.9681003913283348e-03</internalNodes>
          <leafValues>
            -6.2176167964935303e-01 7.4074071645736694e-01</leafValues></_>
        <_>
          <internalNodes>
            0 -1 38 -1.2580833863466978e-03</internalNodes>
          <leafValues>
            6.9201332330703735e-01 -2.8489702939987183e-01</leafValues></_>
        <_>
          <internalNodes>
            0 -1 63 -5.8226566761732101e-03</internalNodes>
          <leafValues>
            4.2301517724990845e-01 -6.1902177333831787e-01</leafValues></_>
        <_>
          <internalNodes>
            0 -1 19 -3.9864582940936089e-03</internalNodes>
          <leafValues>
            4.8701861500740051e-01 -3.9112737774848938e-01</leafValues></_>
        <_>
          <internalNodes>
            0 -1 37 -3.4096799790859222e-03</internalNodes>
          <leafValues>
            8.9863282442092896e-01 -2.2842599451541901e-01</leafValues></_>
        <_>
          <internalNodes>
            0 -1 5 -6.7022413015365601e-02</internalNodes>
          <leafValues>
            6.4931446313858032e-01 -4.3453460931777954e-01</leafValues></_></weakClassifiers></_>
    <!-- stage 4 -->
    <_>
      <maxWeakCount>8</maxWeakCount>
      <stageThreshold>-3.9105367660522461e-01</stageThreshold>
      <weakClassifiers>
        <_>
          <internalNodes>
            0 -1 56 -6.8856915459036827e-04</internalNodes>
          <leafValues>
            6.9610041379928589e-01 -4.1463413834571838e-01</leafValues></_>
        <_>
          <internalNodes>
            0 -1 65 1.6164891421794891e-02</internalNodes>
          <leafValues>
            -3.0441319942474365e-01 5.7769203186035156e-01</leafValues></_>
        <_>
          <internalNodes>
            0 -1 24 -2.4401186034083366e-02</internalNodes>
          <leafValues>
            7.6783007383346558e-01 -2.3615598678588867e-01</leafValues></_>
        <_>
          <internalNodes>
            0 -1 43 -2.4605826474726200e-03</internalNodes>
          <leafValues>
            8.6664605140686035e-01 -3.2877659797668457e-01</leafValues></_>
        <_>
          <internalNodes>
            0 -1 2 2.3621857166290283e-02</internalNodes>
          <leafValues>
            -2.5973069667816162e-01 5.8994901180267334e-01</leafValues></_>
        <_>
          <internalNodes>
            0 -1 26 -1.0216271504759789e-02</internalNodes>
          <leafValues>
            2.0480264723300934e-01 -7.6834827661514282e-01</leafValues></_>
        <_>
          <internalNodes>
            0 -1 10 -7.0644756779074669e-03</internalNodes>
          <leafValues>
            3.3463189005851746e-01 -5.6825703382492065e-01</leafValues></_>
        <_>
          <internalNodes>
            0 -1 52 -4.9812882207334042e-04</internalNodes>
          <leafValues>
            5.1212531328201294e-01 -3.3702731132507324e-01</leafValues></_></weakClassifiers></_>
    <!-- stage 5 -->
    <_>
      <maxWeakCount>7</maxWeakCount>
      <stageThreshold>-3.1978029012680054e-01</stageThreshold>
      <weakClassifiers>
        <_>
          <internalNodes>
            0 -1 29 -6.3715808093547821e-02</internalNodes>
          <leafValues>
            -8.7341773509979248e-01 6.2981164455413818e-01</leafValues></_>
        <_>
          <internalNodes>
            0 -1 34 -2.2267808672040701e-03</internalNodes>
          <leafValues>
            5.7230597734451294e-01 -3.5321918129920959e-01</leafValues></_>
        <_>
          <internalNodes>
            0 -1 33 -8.5671115666627884e-03</internalNodes>
          <leafValues>
            5.2896559238433838e-01 -4.7552186250686646e-01</leafValues></_>
        <_>
          <internalNodes>
            0 -1 12 -3.5095542669296265e-02</internalNodes>
          <leafValues>
            6.7551779747009277e-01 -3.3822923898696899e-01</leafValues></_>
        <_>
          <internalNodes>
            0 -1 41 -4.6013356186449528e-03</internalNodes>
          <leafValues>
            5.5316656827926636e-01 -3.0195304751396179e-01</leafValues></_>
        <_>
          <internalNodes>
            0 -1 16 -1.4773927396163344e-03</internalNodes>
          <leafValues>
            2.4680471420288086e-01 -8.0325514078140259e-01</leafValues></_>
        <_>
          <internalNodes>
            0 -1 21 -4.6398043632507324e-02</internalNodes>
          <leafValues>
            2.8142374753952026e-01 -5.3702044486999512e-01</leafValues></_></weakClassifiers></_>
    <!-- stage 6 -->
    <_>
      <maxWeakCount>8</maxWeakCount>
      <stageThreshold>-5.1940065622329712e-01</stageThreshold>
      <weakClassifiers>
        <_>
          <internalNodes>
            0 -1 50 -1.4256809372454882e-03</internalNodes>
          <leafValues>
            7.9223883152008057e-01 7.8918918967247009e-02</leafValues></_>
        <_>
          <internalNodes>
            0 -1 23 3.3206850290298462e-02</internalNodes>
          <leafValues>
            -1.8669295310974121e-01 7.3046249151229858e-01</leafValues></_>
        <_>
          <internalNodes>
            0 -1 17 -4.7387027740478516e-01</internalNodes>
          <leafValues>
            7.7751272916793823e-01 -2.1675433218479156e-01</leafValues></_>
        <_>
          <internalNodes>
            0 -1 67 5.5811139754951000e-03</internalNodes>
          <leafValues>
            -2.1281246840953827e-01 7.2134298086166382e-01</leafValues></_>
        <_>
          <internalNodes>
            0 -1 30 1.8434509634971619e-02</internalNodes>
          <leafValues>
            -1.3999384641647339e-01 9.8824769258499146e-01</leafValues></_>
        <_>
          <internalNodes>
            0 -1 44 -1.1849545408040285e-03</internalNodes>
          <leafValues>
            6.9987529516220093e-01 -2.2036466002464294e-01</leafValues></_>
        <_>
          <internalNodes>
            0 -1 14 -9.5381945371627808e-02</internalNodes>
          <leafValues>
            8.1183147430419922e-01 -2.4870130419731140e-01</leafValues></_>
        <_>
          <internalNodes>
            0 -1 55 9.6179160755127668e-04</internalNodes>
          <leafValues>
            -3.6726707220077515e-01 3.9369955658912659e-01</leafValues></_></weakClassifiers></_>
    <!-- stage 7 -->
    <_>
      <maxWeakCount>10</maxWeakCount>
      <stageThreshold>-6.4350837469100952e-01</stageThreshold>
      <weakClassifiers>
        <_>
          <internalNodes>
            0 -1 31 3.5403291694819927e-03</internalNodes>
          <leafValues>
            -5.8974361419677734e-01 6.7082077264785767e-01</leafValues></_>
        <_>
          <internalNodes>
            0 -1 7 -2.4518337100744247e-02</internalNodes>
          <leafValues>
            4.1485252976417542e-01 -4.5111113786697388e-01</leafValues></_>
        <_>
          <internalNodes>
            0 -1 22 -8.7423413060605526e-04</internalNodes>
          <leafValues>
            6.4484530687332153e-01 -2.3431707918643951e-01</leafValues></_>
        <_>
          <internalNodes>
            0 -1 36 -2.6874798350036144e-03</internalNodes>
          <leafValues>
            3.7304639816284180e-01 -3.4855252504348755e-01</leafValues></_>
        <_>
          <internalNodes>
            0 -1 1 1.1138333939015865e-02</internalNodes>
          <leafValues>
            -2.5444230437278748e-01 5.8072191476821899e-01</leafValues></_>
        <_>
          <internalNodes>
            0 -1 54 -5.4740125779062510e-04</internalNodes>
          <leafValues>
            7.6518529653549194e-01 -1.3770335912704468e-01</leafValues></_>
        <_>
          <internalNodes>
            0 -1 53 -2.1429054322652519e-04</internalNodes>
          <leafValues>
            7.6464229822158813e-01 -1.7034740746021271e-01</leafValues></_>
        <_>
          <internalNodes>
            0 -1 49 4.0298528620041907e-04</internalNodes>
          <leafValues>
            -1.8781588971614838e-01 6.6142654418945312e-01</leafValues></_>
        <_>
          <internalNodes>
            0 -1 66 -6.4595951698720455e-03</internalNodes>
          <leafValues>
            7.8628396987915039e-01 -1.4759629964828491e-01</leafValues></_>
        <_>
          <internalNodes>
            0 -1 39 -1.1453513987362385e-02</internalNodes>
          <leafValues>
            4.3927118182182312e-01 -3.1743288040161133e-01</leafValues></_></weakClassifiers></_>
    <!-- stage 8 -->
    <_>
      <maxWeakCount>9</maxWeakCount>
      <stageThreshold>-5.4586601257324219e-01</stageThreshold>
      <weakClassifiers>
        <_>
          <internalNodes>
            0 -1 46 -5.4863062687218189e-03</internalNodes>
          <leafValues>
            -5.8297872543334961e-01 6.4989429712295532e-01</leafValues></_>
        <_>
          <internalNodes>
            0 -1 27 -4.0127569809556007e-03</internalNodes>
          <leafValues>
            -7.5583368539810181e-01 2.8302690386772156e-01</leafValues></_>
        <_>
          <internalNodes>
            0 -1 57 6.6659919684752822e-04</internalNodes>
          <leafValues>
            -2.3494543135166168e-01 7.1975374221801758e-01</leafValues></_>
        <_>
          <internalNodes>
            0 -1 8 -3.1119853258132935e-02</internalNodes>
          <leafValues>
            6.8770778179168701e-01 -2.1573631465435028e-01</leafValues></_>
        <_>
          <internalNodes>
            0 -1 13 -2.5510620325803757e-02</internalNodes>
          <leafValues>
            2.7813756465911865e-01 -5.9162926673889160e-01</leafValues></_>
        <_>
          <internalNodes>
            0 -1 60 -1.4263279736042023e-03</internalNodes>
          <leafValues>
            6.4064288139343262e-01 -2.5857245922088623e-01</leafValues></_>
        <_>
          <internalNodes>
            0 -1 61 -5.1008467562496662e-04</internalNodes>
          <leafValues>
            7.7668005228042603e-01 -2.0435661077499390e-01</leafValues></_>
        <_>
          <internalNodes>
            0 -1 48 6.9894635817036033e-04</internalNodes>
          <leafValues>
            2.1946705877780914e-01 -7.2627681493759155e-01</leafValues></_>
        <_>
          <internalNodes>
            0 -1 64 1.2842162977904081e-03</internalNodes>
          <leafValues>
            -1.9301420450210571e-01 8.5609501600265503e-01</leafValues></_></weakClassifiers></_>
    <!-- stage 9 -->
    <_>
      <maxWeakCount>10</maxWeakCount>
      <stageThreshold>-2.5075629353523254e-01</stageThreshold>
      <weakClassifiers>
        <_>
          <internalNodes>
            0 -1 4 8.3793558180332184e-02</internalNodes>
          <leafValues>
            6.2088817358016968e-01 -6.5476191043853760e-01</leafValues></_>
        <_>
          <internalNodes>
            0 -1 35 -5.0094742327928543e-03</internalNodes>
          <leafValues>
            7.8218698501586914e-01 -1.0865408182144165e-01</leafValues></_>
        <_>
          <internalNodes>
            0 -1 28 -2.5571513921022415e-02</internalNodes>
          <leafValues>
            4.7004050016403198e-01 -2.9305088520050049e-01</leafValues></_>
        <_>
          <internalNodes>
            0 -1 0 -2.1024906635284424e-01</internalNodes>
          <leafValues>
            -7.8839248418807983e-01 1.6911974549293518e-01</leafValues></_>
        <_>
          <internalNodes>
            0 -1 62 -7.9439638648182154e-04</internalNodes>
          <leafValues>
            7.1959984302520752e-01 -2.0387862622737885e-01</leafValues></_>
        <_>
          <internalNodes>
            0 -1 58 -1.1234204284846783e-03</internalNodes>
          <leafValues>
            5.6141096353530884e-01 -2.3799033463001251e-01</leafValues></_>
        <_>
          <internalNodes>
            0 -1 42 -8.6694699712097645e-04</internalNodes>
          <leafValues>
            6.7759197950363159e-01 -1.5117494761943817e-01</leafValues></_>
        <_>
          <internalNodes>
            0 -1 59 -2.1616066806018353e-04</internalNodes>
          <leafValues>
            6.0713368654251099e-01 -2.1074429154396057e-01</leafValues></_>
        <_>
          <internalNodes>
            0 -1 18 -4.1973302140831947e-03</internalNodes>
          <leafValues>
            2.0817179977893829e-01 -7.4311667680740356e-01</leafValues></_>
        <_>
          <internalNodes>
            0 -1 47 -2.2070978302508593e-03</internalNodes>
          <leafValues>
            1.7511548101902008e-01 -7.5936746597290039e-01</leafValues></_></weakClassifiers></_></stages>
  <features>
    <_>
      <rects>
        <_>
          3 3 76 28 -1.</_>
        <_>
          41 3 38 28 2.</_></rects>
      <tilted>0</tilted></_>
    <_>
      <rects>
        <_>
          8 15 33 3 -1.</_>
        <_>
          19 15 11 3 3.</_></rects>
      <tilted>0</tilted></_>
    <_>
      <rects>
        <_>
          10 12 24 19 -1.</_>
        <_>
          16 12 12 19 2.</_></rects>
      <tilted>0</tilted></_>
    <_>
      <rects>
        <_>
          14 17 54 21 -1.</_>
        <_>
          32 24 18 7 9.</_></rects>
      <tilted>0</tilted></_>
    <_>
      <rects>
        <_>
          15 4 50 35 -1.</_>
        <_>
          40 4 25 35 2.</_></rects>
      <tilted>0</tilted></_>
    <_>
      <rects>
        <_>
          15 24 48 6 -1.</_>
        <_>
          31 26 16 2 9.</_></rects>
      <tilted>0</tilted></_>
    <_>
      <rects>
        <_>
          17 16 51 24 -1.</_>
        <_>
          34 24 17 8 9.</_></rects>
      <tilted>0</tilted></_>
    <_>
      <rects>
        <_>
          17 17 18 17 -1.</_>
        <_>
          26 17 9 17 2.</_></rects>
      <tilted>0</tilted></_>
    <_>
      <rects>
        <_>
          17 26 48 2 -1.</_>
        <_>
          33 26 16 2 3.</_></rects>
      <tilted>0</tilted></_>
    <_>
      <rects>
        <_>
          18 11 48 24 -1.</_>
        <_>
          30 11 24 24 2.</_></rects>
      <tilted>0</tilted></_>
    <_>
      <rects>
        <_>
          18 11 51 6 -1.</_>
        <_>
          35 11 17 6 3.</_></rects>
      <tilted>0</tilted></_>
    <_>
      <rects>
        <_>
          18 23 44 11 -1.</_>
        <_>
          29 23 22 11 2.</_></rects>
      <tilted>0</tilted></_>
    <_>
      <rects>
        <_>
          18 24 44 4 -1.</_>
        <_>
          29 24 22 4 2.</_></rects>
      <tilted>0</tilted></_>
    <_>
      <rects>
        <_>
          19 4 36 36 -1.</_>
        <_>
          37 4 18 36 2.</_></rects>
      <tilted>0</tilted></_>
    <_>
      <rects>
        <_>
          19 18 44 11 -1.</_>
        <_>
          30 18 22 11 2.</_></rects>
      <tilted>0</tilted></_>
    <_>
      <rects>
        <_>
          20 19 24 14 -1.</_>
        <_>
          28 19 8 14 3.</_></rects>
      <tilted>0</tilted></_>
    <_>
      <rects>
        <_>
          21 7 28 31 -1.</_>
        <_>
          28 7 14 31 2.</_></rects>
      <tilted>0</tilted></_>
    <_>
      <rects>
        <_>
          21 7 45 33 -1.</_>
        <_>
          36 18 15 11 9.</_></rects>
      <tilted>0</tilted></_>
    <_>
      <rects>
        <_>
          21 13 28 23 -1.</_>
        <_>
          28 13 14 23 2.</_></rects>
      <tilted>0</tilted></_>
    <_>
      <rects>
        <_>
          21 21 21 2 -1.</_>
        <_>
          28 21 7 2 3.</_></rects>
      <tilted>0</tilted></_>
    <_>
      <rects>
        <_>
          23 20 18 12 -1.</_>
        <_>
          29 20 6 12 3.</_></rects>
      <tilted>0</tilted></_>
    <_>
      <rects>
        <_>
          29 5 36 34 -1.</_>
        <_>
          41 5 12 34 3.</_></rects>
      <tilted>0</tilted></_>
    <_>
      <rects>
        <_>
          29 16 3 8 -1.</_>
        <_>
          30 16 1 8 3.</_></rects>
      <tilted>0</tilted></_>
    <_>
      <rects>
        <_>
          30 17 21 9 -1.</_>
        <_>
          37 20 7 3 9.</_></rects>
      <tilted>0</tilted></_>
    <_>
      <rects>
        <_>
          30 18 11 8 -1.</_>
        <_>
          30 18 11 4 2.</_></rects>
      <tilted>1</tilted></_>
    <_>
      <rects>
        <_>
          31 18 11 8 -1.</_>
        <_>
          31 18 11 4 2.</_></rects>
      <tilted>1</tilted></_>
    <_>
      <rects>
        <_>
          33 12 14 18 -1.</_>
        <_>
          33 21 14 9 2.</_></rects>
      <tilted>0</tilted></_>
    <_>
      <rects>
        <_>
          33 14 12 23 -1.</_>
        <_>
          37 14 4 23 3.</_></rects>
      <tilted>0</tilted></_>
    <_>
      <rects>
        <_>
          34 13 11 12 -1.</_>
        <_>
          30 17 11 4 3.</_></rects>
      <tilted>1</tilted></_>
    <_>
      <rects>
        <_>
          35 0 7 40 -1.</_>
        <_>
          35 20 7 20 2.</_></rects>
      <tilted>0</tilted></_>
    <_>
      <rects>
        <_>
          35 12 9 10 -1.</_>
        <_>
          35 17 9 5 2.</_></rects>
      <tilted>0</tilted></_>
    <_>
      <rects>
        <_>
          36 13 12 5 -1.</_>
        <_>
          36 13 6 5 2.</_></rects>
      <tilted>1</tilted></_>
    <_>
      <rects>
        <_>
          36 16 10 12 -1.</_>
        <_>
          36 20 10 4 3.</_></rects>
      <tilted>0</tilted></_>
    <_>
      <rects>
        <_>
          36 20 12 10 -1.</_>
        <_>
          36 25 12 5 2.</_></rects>
      <tilted>0</tilted></_>
    <_>
      <rects>
        <_>
          37 14 6 6 -1.</_>
        <_>
          37 17 6 3 2.</_></rects>
      <tilted>0</tilted></_>
    <_>
      <rects>
        <_>
          37 16 5 6 -1.</_>
        <_>
          37 18 5 2 3.</_></rects>
      <tilted>0</tilted></_>
    <_>
      <rects>
        <_>
          37 21 24 1 -1.</_>
        <_>
          45 21 8 1 3.</_></rects>
      <tilted>0</tilted></_>
    <_>
      <rects>
        <_>
          38 16 3 6 -1.</_>
        <_>
          38 18 3 2 3.</_></rects>
      <tilted>0</tilted></_>
    <_>
      <rects>
        <_>
          38 17 5 6 -1.</_>
        <_>
          38 19 5 2 3.</_></rects>
      <tilted>0</tilted></_>
    <_>
      <rects>
        <_>
          38 18 28 6 -1.</_>
        <_>
          45 18 14 6 2.</_></rects>
      <tilted>0</tilted></_>
    <_>
      <rects>
        <_>
          38 19 6 6 -1.</_>
        <_>
          38 21 6 2 3.</_></rects>
      <tilted>0</tilted></_>
    <_>
      <rects>
        <_>
          38 20 14 3 -1.</_>
        <_>
          45 20 7 3 2.</_></rects>
      <tilted>0</tilted></_>
    <_>
      <rects>
        <_>
          38 22 2 3 -1.</_>
        <_>
          38 23 2 1 3.</_></rects>
      <tilted>0</tilted></_>
    <_>
      <rects>
        <_>
          39 16 2 6 -1.</_>
        <_>
          39 18 2 2 3.</_></rects>
      <tilted>0</tilted></_>
    <_>
      <rects>
        <_>
          39 17 3 4 -1.</_>
        <_>
          39 18 3 2 2.</_></rects>
      <tilted>0</tilted></_>
    <_>
      <rects>
        <_>
          39 19 18 8 -1.</_>
        <_>
          45 19 6 8 3.</_></rects>
      <tilted>0</tilted></_>
    <_>
      <rects>
        <_>
          40 13 6 27 -1.</_>
        <_>
          43 13 3 27 2.</_></rects>
      <tilted>0</tilted></_>
    <_>
      <rects>
        <_>
          40 18 15 15 -1.</_>
        <_>
          45 18 5 15 3.</_></rects>
      <tilted>0</tilted></_>
    <_>
      <rects>
        <_>
          40 25 8 8 -1.</_>
        <_>
          42 25 4 8 2.</_></rects>
      <tilted>0</tilted></_>
    <_>
      <rects>
        <_>
          41 10 2 3 -1.</_>
        <_>
          41 11 2 1 3.</_></rects>
      <tilted>0</tilted></_>
    <_>
      <rects>
        <_>
          41 11 2 10 -1.</_>
        <_>
          41 16 2 5 2.</_></rects>
      <tilted>0</tilted></_>
    <_>
      <rects>
        <_>
          41 12 10 8 -1.</_>
        <_>
          41 12 5 8 2.</_></rects>
      <tilted>1</tilted></_>
    <_>
      <rects>
        <_>
          41 19 3 3 -1.</_>
        <_>
          42 20 1 1 9.</_></rects>
      <tilted>0</tilted></_>
    <_>
      <rects>
        <_>
          42 5 1 3 -1.</_>
        <_>
          42 6 1 1 3.</_></rects>
      <tilted>0</tilted></_>
    <_>
      <rects>
        <_>
          42 10 2 3 -1.</_>
        <_>
          42 11 2 1 3.</_></rects>
      <tilted>0</tilted></_>
    <_>
      <rects>
        <_>
          42 16 3 8 -1.</_>
        <_>
          40 18 3 4 2.</_></rects>
      <tilted>1</tilted></_>
    <_>
      <rects>
        <_>
          42 17 12 23 -1.</_>
        <_>
          45 17 6 23 2.</_></rects>
      <tilted>0</tilted></_>
    <_>
      <rects>
        <_>
          42 19 4 3 -1.</_>
        <_>
          43 19 2 3 2.</_></rects>
      <tilted>0</tilted></_>
    <_>
      <rects>
        <_>
          43 7 3 6 -1.</_>
        <_>
          43 9 3 2 3.</_></rects>
      <tilted>0</tilted></_>
    <_>
      <rects>
        <_>
          43 10 1 3 -1.</_>
        <_>
          43 11 1 1 3.</_></rects>
      <tilted>0</tilted></_>
    <_>
      <rects>
        <_>
          45 7 6 6 -1.</_>
        <_>
          45 9 6 2 3.</_></rects>
      <tilted>0</tilted></_>
    <_>
      <rects>
        <_>
          45 10 2 4 -1.</_>
        <_>
          45 11 2 2 2.</_></rects>
      <tilted>0</tilted></_>
    <_>
      <rects>
        <_>
          46 5 3 3 -1.</_>
        <_>
          45 6 3 1 3.</_></rects>
      <tilted>1</tilted></_>
    <_>
      <rects>
        <_>
          48 14 9 15 -1.</_>
        <_>
          51 17 3 15 3.</_></rects>
      <tilted>1</tilted></_>
    <_>
      <rects>
        <_>
          49 8 5 4 -1.</_>
        <_>
          49 10 5 2 2.</_></rects>
      <tilted>0</tilted></_>
    <_>
      <rects>
        <_>
          50 4 12 27 -1.</_>
        <_>
          56 4 6 27 2.</_></rects>
      <tilted>0</tilted></_>
    <_>
      <rects>
        <_>
          55 5 8 8 -1.</_>
        <_>
          53 7 8 4 2.</_></rects>
      <tilted>1</tilted></_>
    <_>
      <rects>
        <_>
          56 9 12 17 -1.</_>
        <_>
          59 9 6 17 2.</_></rects>
      <tilted>0</tilted></_></features></cascade>
</opencv_storage>
