<?xml version="1.0"?>
<opencv_storage>
<stage3>
  <maxWeakCount>6</maxWeakCount>
  <stageThreshold>-7.2471213340759277e-01</stageThreshold>
  <weakClassifiers>
    <_>
      <internalNodes>
        0 -1 5650101 5.9681003913283348e-03</internalNodes>
      <leafValues>
        -6.2176167964935303e-01 7.4074071645736694e-01</leafValues></_>
    <_>
      <internalNodes>
        0 -1 5358654 -1.2580833863466978e-03</internalNodes>
      <leafValues>
        6.9201332330703735e-01 -2.8489702939987183e-01</leafValues></_>
    <_>
      <internalNodes>
        0 -1 6302464 -5.8226566761732101e-03</internalNodes>
      <leafValues>
        4.2301517724990845e-01 -6.1902177333831787e-01</leafValues></_>
    <_>
      <internalNodes>
        0 -1 3299391 -3.9864582940936089e-03</internalNodes>
      <leafValues>
        4.8701861500740051e-01 -3.9112737774848938e-01</leafValues></_>
    <_>
      <internalNodes>
        0 -1 5355254 -3.4096799790859222e-03</internalNodes>
      <leafValues>
        8.9863282442092896e-01 -2.2842599451541901e-01</leafValues></_>
    <_>
      <internalNodes>
        0 -1 2456139 -6.7022413015365601e-02</internalNodes>
      <leafValues>
        6.4931446313858032e-01 -4.3453460931777954e-01</leafValues></_></weakClassifiers></stage3>
</opencv_storage>
