<?xml version="1.0"?>
<opencv_storage>
<stage9>
  <maxWeakCount>10</maxWeakCount>
  <stageThreshold>-2.5075629353523254e-01</stageThreshold>
  <weakClassifiers>
    <_>
      <internalNodes>
        0 -1 2363726 8.3793558180332184e-02</internalNodes>
      <leafValues>
        6.2088817358016968e-01 -6.5476191043853760e-01</leafValues></_>
    <_>
      <internalNodes>
        0 -1 5249095 -5.0094742327928543e-03</internalNodes>
      <leafValues>
        7.8218698501586914e-01 -1.0865408182144165e-01</leafValues></_>
    <_>
      <internalNodes>
        0 -1 4908135 -2.5571513921022415e-02</internalNodes>
      <leafValues>
        4.7004050016403198e-01 -2.9305088520050049e-01</leafValues></_>
    <_>
      <internalNodes>
        0 -1 508868 -2.1024906635284424e-01</internalNodes>
      <leafValues>
        -7.8839248418807983e-01 1.6911974549293518e-01</leafValues></_>
    <_>
      <internalNodes>
        0 -1 6095844 -7.9439638648182154e-04</internalNodes>
      <leafValues>
        7.1959984302520752e-01 -2.0387862622737885e-01</leafValues></_>
    <_>
      <internalNodes>
        0 -1 5825551 -1.1234204284846783e-03</internalNodes>
      <leafValues>
        5.6141096353530884e-01 -2.3799033463001251e-01</leafValues></_>
    <_>
      <internalNodes>
        0 -1 5370965 -8.6694699712097645e-04</internalNodes>
      <leafValues>
        6.7759197950363159e-01 -1.5117494761943817e-01</leafValues></_>
    <_>
      <internalNodes>
        0 -1 5836723 -2.1616066806018353e-04</internalNodes>
      <leafValues>
        6.0713368654251099e-01 -2.1074429154396057e-01</leafValues></_>
    <_>
      <internalNodes>
        0 -1 3268689 -4.1973302140831947e-03</internalNodes>
      <leafValues>
        2.0817179977893829e-01 -7.4311667680740356e-01</leafValues></_>
    <_>
      <internalNodes>
        0 -1 5568063 -2.2070978302508593e-03</internalNodes>
      <leafValues>
        1.7511548101902008e-01 -7.5936746597290039e-01</leafValues></_></weakClassifiers></stage9>
</opencv_storage>
