<?xml version="1.0"?>
<opencv_storage>
<stage5>
  <maxWeakCount>7</maxWeakCount>
  <stageThreshold>-3.1978029012680054e-01</stageThreshold>
  <weakClassifiers>
    <_>
      <internalNodes>
        0 -1 4956834 -6.3715808093547821e-02</internalNodes>
      <leafValues>
        -8.7341773509979248e-01 6.2981164455413818e-01</leafValues></_>
    <_>
      <internalNodes>
        0 -1 5242770 -2.2267808672040701e-03</internalNodes>
      <leafValues>
        5.7230597734451294e-01 -3.5321918129920959e-01</leafValues></_>
    <_>
      <internalNodes>
        0 -1 5153331 -8.5671115666627884e-03</internalNodes>
      <leafValues>
        5.2896559238433838e-01 -4.7552186250686646e-01</leafValues></_>
    <_>
      <internalNodes>
        0 -1 2889122 -3.5095542669296265e-02</internalNodes>
      <leafValues>
        6.7551779747009277e-01 -3.3822923898696899e-01</leafValues></_>
    <_>
      <internalNodes>
        0 -1 5366982 -4.6013356186449528e-03</internalNodes>
      <leafValues>
        5.5316656827926636e-01 -3.0195304751396179e-01</leafValues></_>
    <_>
      <internalNodes>
        0 -1 3237475 -1.4773927396163344e-03</internalNodes>
      <leafValues>
        2.4680471420288086e-01 -8.0325514078140259e-01</leafValues></_>
    <_>
      <internalNodes>
        0 -1 4277275 -4.6398043632507324e-02</internalNodes>
      <leafValues>
        2.8142374753952026e-01 -5.3702044486999512e-01</leafValues></_></weakClassifiers></stage5>
</opencv_storage>
