<?xml version="1.0"?>
<opencv_storage>
<stage4>
  <maxWeakCount>8</maxWeakCount>
  <stageThreshold>-3.9105367660522461e-01</stageThreshold>
  <weakClassifiers>
    <_>
      <internalNodes>
        0 -1 5763401 -6.8856915459036827e-04</internalNodes>
      <leafValues>
        6.9610041379928589e-01 -4.1463413834571838e-01</leafValues></_>
    <_>
      <internalNodes>
        0 -1 6436059 1.6164891421794891e-02</internalNodes>
      <leafValues>
        -3.0441319942474365e-01 5.7769203186035156e-01</leafValues></_>
    <_>
      <internalNodes>
        0 -1 4455884 -2.4401186034083366e-02</internalNodes>
      <leafValues>
        7.6783007383346558e-01 -2.3615598678588867e-01</leafValues></_>
    <_>
      <internalNodes>
        0 -1 5459265 -2.4605826474726200e-03</internalNodes>
      <leafValues>
        8.6664605140686035e-01 -3.2877659797668457e-01</leafValues></_>
    <_>
      <internalNodes>
        0 -1 1656562 2.3621857166290283e-02</internalNodes>
      <leafValues>
        -2.5973069667816162e-01 5.8994901180267334e-01</leafValues></_>
    <_>
      <internalNodes>
        0 -1 4790381 -1.0216271504759789e-02</internalNodes>
      <leafValues>
        2.0480264723300934e-01 -7.6834827661514282e-01</leafValues></_>
    <_>
      <internalNodes>
        0 -1 2839182 -7.0644756779074669e-03</internalNodes>
      <leafValues>
        3.3463189005851746e-01 -5.6825703382492065e-01</leafValues></_>
    <_>
      <internalNodes>
        0 -1 5670032 -4.9812882207334042e-04</internalNodes>
      <leafValues>
        5.1212531328201294e-01 -3.3702731132507324e-01</leafValues></_></weakClassifiers></stage4>
</opencv_storage>
